<?xml version="1.0"?>
<opencv_storage>
<cascade>
  <stageType>BOOST</stageType>
  <featureType>HAAR</featureType>
  <height>25</height>
  <width>100</width>
  <stageParams>
    <boostType>GAB</boostType>
    <minHitRate>9.9500000476837158e-01</minHitRate>
    <maxFalseAlarm>1.0000000149011612e-01</maxFalseAlarm>
    <weightTrimRate>9.4999999999999996e-01</weightTrimRate>
    <maxDepth>1</maxDepth>
    <maxWeakCount>100</maxWeakCount></stageParams>
  <featureParams>
    <maxCatCount>0</maxCatCount>
    <featSize>1</featSize>
    <mode>BASIC</mode></featureParams>
  <stageNum>5</stageNum>
  <stages>
    <!-- stage 0 -->
    <_>
      <maxWeakCount>2</maxWeakCount>
      <stageThreshold>-1.0043045133352280e-01</stageThreshold>
      <weakClassifiers>
        <_>
          <internalNodes>
            0 -1 0 -2.0449224114418030e-01</internalNodes>
          <leafValues>
            9.3006992340087891e-01 -9.9329984188079834e-01</leafValues></_>
        <_>
          <internalNodes>
            0 -1 2 -1.9440850615501404e-01</internalNodes>
          <leafValues>
            8.9286935329437256e-01 -9.8297476768493652e-01</leafValues></_></weakClassifiers></_>
    <!-- stage 1 -->
    <_>
      <maxWeakCount>4</maxWeakCount>
      <stageThreshold>-8.8401252031326294e-01</stageThreshold>
      <weakClassifiers>
        <_>
          <internalNodes>
            0 -1 17 1.1086110134783667e-05</internalNodes>
          <leafValues>
            -9.8915010690689087e-01 4.6524062752723694e-01</leafValues></_>
        <_>
          <internalNodes>
            0 -1 3 2.4505312467226759e-05</internalNodes>
          <leafValues>
            -9.5067900419235229e-01 5.0549626350402832e-01</leafValues></_>
        <_>
          <internalNodes>
            0 -1 5 -6.6080619581043720e-03</internalNodes>
          <leafValues>
            5.6419599056243896e-01 -8.9284402132034302e-01</leafValues></_>
        <_>
          <internalNodes>
            0 -1 16 -4.5873336493968964e-03</internalNodes>
          <leafValues>
            4.9426981806755066e-01 -9.0388685464859009e-01</leafValues></_></weakClassifiers></_>
    <!-- stage 2 -->
    <_>
      <maxWeakCount>5</maxWeakCount>
      <stageThreshold>-5.3531497716903687e-01</stageThreshold>
      <weakClassifiers>
        <_>
          <internalNodes>
            0 -1 1 -2.1011549234390259e-01</internalNodes>
          <leafValues>
            2.9069766402244568e-01 -8.9788734912872314e-01</leafValues></_>
        <_>
          <internalNodes>
            0 -1 4 1.3193428516387939e-01</internalNodes>
          <leafValues>
            -8.6761140823364258e-01 4.4376182556152344e-01</leafValues></_>
        <_>
          <internalNodes>
            0 -1 6 -1.2787709012627602e-02</internalNodes>
          <leafValues>
            3.7154427170753479e-01 -9.7564309835433960e-01</leafValues></_>
        <_>
          <internalNodes>
            0 -1 13 2.1621409803628922e-02</internalNodes>
          <leafValues>
            -7.8217041492462158e-01 4.6851813793182373e-01</leafValues></_>
        <_>
          <internalNodes>
            0 -1 14 2.7761078672483563e-04</internalNodes>
          <leafValues>
            -9.7114259004592896e-01 4.5222491025924683e-01</leafValues></_></weakClassifiers></_>
    <!-- stage 3 -->
    <_>
      <maxWeakCount>4</maxWeakCount>
      <stageThreshold>-6.3614904880523682e-01</stageThreshold>
      <weakClassifiers>
        <_>
          <internalNodes>
            0 -1 7 -7.3733348399400711e-03</internalNodes>
          <leafValues>
            1. -7.8837555646896362e-01</leafValues></_>
        <_>
          <internalNodes>
            0 -1 12 8.5346307605504990e-03</internalNodes>
          <leafValues>
            5.5833065509796143e-01 -8.5288763046264648e-01</leafValues></_>
        <_>
          <internalNodes>
            0 -1 18 1.3620106037706137e-03</internalNodes>
          <leafValues>
            -9.3799757957458496e-01 5.3535664081573486e-01</leafValues></_>
        <_>
          <internalNodes>
            0 -1 10 -1.1028798762708902e-03</internalNodes>
          <leafValues>
            5.3189349174499512e-01 -8.7789475917816162e-01</leafValues></_></weakClassifiers></_>
    <!-- stage 4 -->
    <_>
      <maxWeakCount>5</maxWeakCount>
      <stageThreshold>-2.3185467720031738e-01</stageThreshold>
      <weakClassifiers>
        <_>
          <internalNodes>
            0 -1 11 1.6855759895406663e-04</internalNodes>
          <leafValues>
            -8.1762915849685669e-01 9.5121949911117554e-01</leafValues></_>
        <_>
          <internalNodes>
            0 -1 19 3.1666830182075500e-04</internalNodes>
          <leafValues>
            5.6786078214645386e-01 -9.7996300458908081e-01</leafValues></_>
        <_>
          <internalNodes>
            0 -1 9 1.1382248252630234e-02</internalNodes>
          <leafValues>
            -9.3481522798538208e-01 5.1638752222061157e-01</leafValues></_>
        <_>
          <internalNodes>
            0 -1 8 -4.6559752081520855e-04</internalNodes>
          <leafValues>
            5.6289714574813843e-01 -8.9159250259399414e-01</leafValues></_>
        <_>
          <internalNodes>
            0 -1 15 -4.0288289892487228e-04</internalNodes>
          <leafValues>
            4.8645281791687012e-01 -9.9700134992599487e-01</leafValues></_></weakClassifiers></_></stages>
  <features>
    <_>
      <rects>
        <_>
          0 0 88 18 -1.</_>
        <_>
          0 9 88 9 2.</_></rects>
      <tilted>0</tilted></_>
    <_>
      <rects>
        <_>
          0 1 99 19 -1.</_>
        <_>
          33 1 33 19 3.</_></rects>
      <tilted>0</tilted></_>
    <_>
      <rects>
        <_>
          0 4 56 21 -1.</_>
        <_>
          0 11 56 7 3.</_></rects>
      <tilted>0</tilted></_>
    <_>
      <rects>
        <_>
          2 12 6 6 -1.</_>
        <_>
          4 12 2 6 3.</_></rects>
      <tilted>0</tilted></_>
    <_>
      <rects>
        <_>
          6 13 61 10 -1.</_>
        <_>
          6 18 61 5 2.</_></rects>
      <tilted>0</tilted></_>
    <_>
      <rects>
        <_>
          8 5 48 4 -1.</_>
        <_>
          8 5 24 2 2.</_>
        <_>
          32 7 24 2 2.</_></rects>
      <tilted>0</tilted></_>
    <_>
      <rects>
        <_>
          14 8 38 16 -1.</_>
        <_>
          33 8 19 16 2.</_></rects>
      <tilted>0</tilted></_>
    <_>
      <rects>
        <_>
          19 12 3 6 -1.</_>
        <_>
          19 14 3 2 3.</_></rects>
      <tilted>0</tilted></_>
    <_>
      <rects>
        <_>
          31 7 15 2 -1.</_>
        <_>
          31 8 15 1 2.</_></rects>
      <tilted>0</tilted></_>
    <_>
      <rects>
        <_>
          33 1 26 9 -1.</_>
        <_>
          33 4 26 3 3.</_></rects>
      <tilted>0</tilted></_>
    <_>
      <rects>
        <_>
          37 18 54 2 -1.</_>
        <_>
          37 18 27 1 2.</_>
        <_>
          64 19 27 1 2.</_></rects>
      <tilted>0</tilted></_>
    <_>
      <rects>
        <_>
          57 10 6 3 -1.</_>
        <_>
          59 10 2 3 3.</_></rects>
      <tilted>0</tilted></_>
    <_>
      <rects>
        <_>
          75 0 20 25 -1.</_>
        <_>
          85 0 10 25 2.</_></rects>
      <tilted>0</tilted></_>
    <_>
      <rects>
        <_>
          75 9 22 15 -1.</_>
        <_>
          75 14 22 5 3.</_></rects>
      <tilted>0</tilted></_>
    <_>
      <rects>
        <_>
          76 1 24 24 -1.</_>
        <_>
          88 1 12 24 2.</_></rects>
      <tilted>0</tilted></_>
    <_>
      <rects>
        <_>
          92 0 8 24 -1.</_>
        <_>
          92 8 8 8 3.</_></rects>
      <tilted>0</tilted></_>
    <_>
      <rects>
        <_>
          92 7 8 18 -1.</_>
        <_>
          92 7 4 9 2.</_>
        <_>
          96 16 4 9 2.</_></rects>
      <tilted>0</tilted></_>
    <_>
      <rects>
        <_>
          92 9 4 6 -1.</_>
        <_>
          94 9 2 6 2.</_></rects>
      <tilted>0</tilted></_>
    <_>
      <rects>
        <_>
          93 0 4 18 -1.</_>
        <_>
          95 0 2 18 2.</_></rects>
      <tilted>0</tilted></_>
    <_>
      <rects>
        <_>
          96 4 3 21 -1.</_>
        <_>
          96 11 3 7 3.</_></rects>
      <tilted>0</tilted></_></features></cascade>
</opencv_storage>
