<?xml version="1.0"?>
<opencv_storage>
<stage4>
  <maxWeakCount>5</maxWeakCount>
  <stageThreshold>-2.3185467720031738e-01</stageThreshold>
  <weakClassifiers>
    <_>
      <internalNodes>
        0 -1 2485758 1.6855759895406663e-04</internalNodes>
      <leafValues>
        -8.1762915849685669e-01 9.5121949911117554e-01</leafValues></_>
    <_>
      <internalNodes>
        0 -1 3027224 3.1666830182075500e-04</internalNodes>
      <leafValues>
        5.6786078214645386e-01 -9.7996300458908081e-01</leafValues></_>
    <_>
      <internalNodes>
        0 -1 1674224 1.1382248252630234e-02</internalNodes>
      <leafValues>
        -9.3481522798538208e-01 5.1638752222061157e-01</leafValues></_>
    <_>
      <internalNodes>
        0 -1 1607495 -4.6559752081520855e-04</internalNodes>
      <leafValues>
        5.6289714574813843e-01 -8.9159250259399414e-01</leafValues></_>
    <_>
      <internalNodes>
        0 -1 3012066 -4.0288289892487228e-04</internalNodes>
      <leafValues>
        4.8645281791687012e-01 -9.9700134992599487e-01</leafValues></_></weakClassifiers></stage4>
</opencv_storage>
