<?xml version="1.0"?>
<opencv_storage>
<cascade>
  <stageType>BOOST</stageType>
  <featureType>HAAR</featureType>
  <height>25</height>
  <width>100</width>
  <stageParams>
    <boostType>GAB</boostType>
    <minHitRate>9.9500000476837158e-01</minHitRate>
    <maxFalseAlarm>1.0000000149011612e-01</maxFalseAlarm>
    <weightTrimRate>9.4999999999999996e-01</weightTrimRate>
    <maxDepth>1</maxDepth>
    <maxWeakCount>100</maxWeakCount></stageParams>
  <featureParams>
    <maxCatCount>0</maxCatCount>
    <featSize>1</featSize>
    <mode>BASIC</mode></featureParams>
  <stageNum>4</stageNum>
  <stages>
    <!-- stage 0 -->
    <_>
      <maxWeakCount>1</maxWeakCount>
      <stageThreshold>9.0476191043853760e-01</stageThreshold>
      <weakClassifiers>
        <_>
          <internalNodes>
            0 -1 1 -1.3843154907226562e-01</internalNodes>
          <leafValues>
            9.0476191043853760e-01 -1.</leafValues></_></weakClassifiers></_>
    <!-- stage 1 -->
    <_>
      <maxWeakCount>4</maxWeakCount>
      <stageThreshold>-9.9515289068222046e-01</stageThreshold>
      <weakClassifiers>
        <_>
          <internalNodes>
            0 -1 12 1.1086110134783667e-05</internalNodes>
          <leafValues>
            -9.8408490419387817e-01 6.8098157644271851e-01</leafValues></_>
        <_>
          <internalNodes>
            0 -1 2 1.4998181723058224e-04</internalNodes>
          <leafValues>
            -9.3660891056060791e-01 6.2269967794418335e-01</leafValues></_>
        <_>
          <internalNodes>
            0 -1 3 -4.5505067100748420e-04</internalNodes>
          <leafValues>
            5.0470024347305298e-01 -9.2597776651382446e-01</leafValues></_>
        <_>
          <internalNodes>
            0 -1 11 1.4320843620225787e-03</internalNodes>
          <leafValues>
            -9.8542422056198120e-01 4.2084068059921265e-01</leafValues></_></weakClassifiers></_>
    <!-- stage 2 -->
    <_>
      <maxWeakCount>5</maxWeakCount>
      <stageThreshold>-3.4039363265037537e-01</stageThreshold>
      <weakClassifiers>
        <_>
          <internalNodes>
            0 -1 0 -2.1372139453887939e-01</internalNodes>
          <leafValues>
            5.8461540937423706e-01 -8.1951218843460083e-01</leafValues></_>
        <_>
          <internalNodes>
            0 -1 4 1.5104852616786957e-01</internalNodes>
          <leafValues>
            -8.5725980997085571e-01 4.8137778043746948e-01</leafValues></_>
        <_>
          <internalNodes>
            0 -1 5 -3.6745611578226089e-04</internalNodes>
          <leafValues>
            4.9886947870254517e-01 -8.4929102659225464e-01</leafValues></_>
        <_>
          <internalNodes>
            0 -1 6 -2.3712951689958572e-02</internalNodes>
          <leafValues>
            4.5693182945251465e-01 -8.9193785190582275e-01</leafValues></_>
        <_>
          <internalNodes>
            0 -1 8 2.4772654287517071e-03</internalNodes>
          <leafValues>
            -9.5806050300598145e-01 4.5183119177818298e-01</leafValues></_></weakClassifiers></_>
    <!-- stage 3 -->
    <_>
      <maxWeakCount>3</maxWeakCount>
      <stageThreshold>6.7385949194431305e-02</stageThreshold>
      <weakClassifiers>
        <_>
          <internalNodes>
            0 -1 9 2.6143494993448257e-02</internalNodes>
          <leafValues>
            -9.6153843402862549e-01 5.1136362552642822e-01</leafValues></_>
        <_>
          <internalNodes>
            0 -1 10 -4.5958226546645164e-03</internalNodes>
          <leafValues>
            5.0889730453491211e-01 -8.6381989717483521e-01</leafValues></_>
        <_>
          <internalNodes>
            0 -1 7 5.9639713726937771e-03</internalNodes>
          <leafValues>
            -9.4922250509262085e-01 5.2002710103988647e-01</leafValues></_></weakClassifiers></_></stages>
  <features>
    <_>
      <rects>
        <_>
          0 6 96 14 -1.</_>
        <_>
          32 6 32 14 3.</_></rects>
      <tilted>0</tilted></_>
    <_>
      <rects>
        <_>
          2 0 63 18 -1.</_>
        <_>
          2 9 63 9 2.</_></rects>
      <tilted>0</tilted></_>
    <_>
      <rects>
        <_>
          2 5 6 18 -1.</_>
        <_>
          4 5 2 18 3.</_></rects>
      <tilted>0</tilted></_>
    <_>
      <rects>
        <_>
          6 7 44 2 -1.</_>
        <_>
          6 7 22 1 2.</_>
        <_>
          28 8 22 1 2.</_></rects>
      <tilted>0</tilted></_>
    <_>
      <rects>
        <_>
          6 13 60 12 -1.</_>
        <_>
          6 19 60 6 2.</_></rects>
      <tilted>0</tilted></_>
    <_>
      <rects>
        <_>
          7 6 50 2 -1.</_>
        <_>
          7 6 25 1 2.</_>
        <_>
          32 7 25 1 2.</_></rects>
      <tilted>0</tilted></_>
    <_>
      <rects>
        <_>
          14 7 34 18 -1.</_>
        <_>
          31 7 17 18 2.</_></rects>
      <tilted>0</tilted></_>
    <_>
      <rects>
        <_>
          37 17 24 4 -1.</_>
        <_>
          37 19 24 2 2.</_></rects>
      <tilted>0</tilted></_>
    <_>
      <rects>
        <_>
          78 2 22 23 -1.</_>
        <_>
          89 2 11 23 2.</_></rects>
      <tilted>0</tilted></_>
    <_>
      <rects>
        <_>
          80 8 16 14 -1.</_>
        <_>
          80 15 16 7 2.</_></rects>
      <tilted>0</tilted></_>
    <_>
      <rects>
        <_>
          87 6 12 18 -1.</_>
        <_>
          91 6 4 18 3.</_></rects>
      <tilted>0</tilted></_>
    <_>
      <rects>
        <_>
          92 8 6 8 -1.</_>
        <_>
          95 8 3 8 2.</_></rects>
      <tilted>0</tilted></_>
    <_>
      <rects>
        <_>
          92 9 4 6 -1.</_>
        <_>
          94 9 2 6 2.</_></rects>
      <tilted>0</tilted></_></features></cascade>
</opencv_storage>
