<?xml version="1.0"?>
<opencv_storage>
<cascade>
  <stageType>BOOST</stageType>
  <featureType>HAAR</featureType>
  <height>35</height>
  <width>60</width>
  <stageParams>
    <boostType>GAB</boostType>
    <minHitRate>9.9500000476837158e-01</minHitRate>
    <maxFalseAlarm>1.0000000149011612e-01</maxFalseAlarm>
    <weightTrimRate>9.4999999999999996e-01</weightTrimRate>
    <maxDepth>1</maxDepth>
    <maxWeakCount>100</maxWeakCount></stageParams>
  <featureParams>
    <maxCatCount>0</maxCatCount>
    <featSize>1</featSize>
    <mode>BASIC</mode></featureParams>
  <stageNum>4</stageNum>
  <stages>
    <!-- stage 0 -->
    <_>
      <maxWeakCount>2</maxWeakCount>
      <stageThreshold>-3.6633467674255371e-01</stageThreshold>
      <weakClassifiers>
        <_>
          <internalNodes>
            0 -1 7 -1.8959534168243408e-01</internalNodes>
          <leafValues>
            8.2608693838119507e-01 -9.6984922885894775e-01</leafValues></_>
        <_>
          <internalNodes>
            0 -1 4 -1.7126416787505150e-03</internalNodes>
          <leafValues>
            6.0351455211639404e-01 -9.8125785589218140e-01</leafValues></_></weakClassifiers></_>
    <!-- stage 1 -->
    <_>
      <maxWeakCount>3</maxWeakCount>
      <stageThreshold>1.1962809413671494e-01</stageThreshold>
      <weakClassifiers>
        <_>
          <internalNodes>
            0 -1 1 -2.4465709924697876e-01</internalNodes>
          <leafValues>
            6.1904764175415039e-01 -9.4557821750640869e-01</leafValues></_>
        <_>
          <internalNodes>
            0 -1 11 -1.7028249800205231e-02</internalNodes>
          <leafValues>
            4.9761128425598145e-01 -1.</leafValues></_>
        <_>
          <internalNodes>
            0 -1 13 -4.7533065080642700e-03</internalNodes>
          <leafValues>
            5.6759506464004517e-01 -9.6021300554275513e-01</leafValues></_></weakClassifiers></_>
    <!-- stage 2 -->
    <_>
      <maxWeakCount>5</maxWeakCount>
      <stageThreshold>-1.0036398172378540e+00</stageThreshold>
      <weakClassifiers>
        <_>
          <internalNodes>
            0 -1 12 3.5456796176731586e-03</internalNodes>
          <leafValues>
            -9.5809525251388550e-01 1.8095238506793976e-01</leafValues></_>
        <_>
          <internalNodes>
            0 -1 0 3.6676641553640366e-02</internalNodes>
          <leafValues>
            -9.5071160793304443e-01 3.2032454013824463e-01</leafValues></_>
        <_>
          <internalNodes>
            0 -1 2 2.8973568696528673e-03</internalNodes>
          <leafValues>
            -9.6285235881805420e-01 3.3243712782859802e-01</leafValues></_>
        <_>
          <internalNodes>
            0 -1 10 1.6464559361338615e-02</internalNodes>
          <leafValues>
            -9.2004877328872681e-01 3.6843043565750122e-01</leafValues></_>
        <_>
          <internalNodes>
            0 -1 14 8.7682565208524466e-05</internalNodes>
          <leafValues>
            -9.3474811315536499e-01 4.7252324223518372e-01</leafValues></_></weakClassifiers></_>
    <!-- stage 3 -->
    <_>
      <maxWeakCount>5</maxWeakCount>
      <stageThreshold>-5.5492615699768066e-01</stageThreshold>
      <weakClassifiers>
        <_>
          <internalNodes>
            0 -1 6 -6.2909632921218872e-02</internalNodes>
          <leafValues>
            7.8640776872634888e-01 -8.6392402648925781e-01</leafValues></_>
        <_>
          <internalNodes>
            0 -1 5 -2.7246156334877014e-01</internalNodes>
          <leafValues>
            4.5404073596000671e-01 -9.1876590251922607e-01</leafValues></_>
        <_>
          <internalNodes>
            0 -1 8 -2.1640978753566742e-02</internalNodes>
          <leafValues>
            3.6490222811698914e-01 -9.9021309614181519e-01</leafValues></_>
        <_>
          <internalNodes>
            0 -1 3 2.3156385395850521e-06</internalNodes>
          <leafValues>
            4.4287389516830444e-01 -9.7327619791030884e-01</leafValues></_>
        <_>
          <internalNodes>
            0 -1 9 -1.1404613032937050e-02</internalNodes>
          <leafValues>
            4.1998764872550964e-01 -8.6628818511962891e-01</leafValues></_></weakClassifiers></_></stages>
  <features>
    <_>
      <rects>
        <_>
          0 5 43 15 -1.</_>
        <_>
          0 10 43 5 3.</_></rects>
      <tilted>0</tilted></_>
    <_>
      <rects>
        <_>
          2 6 57 25 -1.</_>
        <_>
          21 6 19 25 3.</_></rects>
      <tilted>0</tilted></_>
    <_>
      <rects>
        <_>
          3 16 6 12 -1.</_>
        <_>
          3 16 3 6 2.</_>
        <_>
          6 22 3 6 2.</_></rects>
      <tilted>0</tilted></_>
    <_>
      <rects>
        <_>
          4 5 15 10 -1.</_>
        <_>
          9 5 5 10 3.</_></rects>
      <tilted>0</tilted></_>
    <_>
      <rects>
        <_>
          4 16 4 9 -1.</_>
        <_>
          6 16 2 9 2.</_></rects>
      <tilted>0</tilted></_>
    <_>
      <rects>
        <_>
          5 4 54 30 -1.</_>
        <_>
          5 14 54 10 3.</_></rects>
      <tilted>0</tilted></_>
    <_>
      <rects>
        <_>
          5 14 17 9 -1.</_>
        <_>
          5 17 17 3 3.</_></rects>
      <tilted>0</tilted></_>
    <_>
      <rects>
        <_>
          6 9 49 18 -1.</_>
        <_>
          6 15 49 6 3.</_></rects>
      <tilted>0</tilted></_>
    <_>
      <rects>
        <_>
          7 0 30 14 -1.</_>
        <_>
          7 0 15 7 2.</_>
        <_>
          22 7 15 7 2.</_></rects>
      <tilted>0</tilted></_>
    <_>
      <rects>
        <_>
          10 3 30 6 -1.</_>
        <_>
          10 6 30 3 2.</_></rects>
      <tilted>0</tilted></_>
    <_>
      <rects>
        <_>
          11 25 38 10 -1.</_>
        <_>
          11 30 38 5 2.</_></rects>
      <tilted>0</tilted></_>
    <_>
      <rects>
        <_>
          21 0 19 12 -1.</_>
        <_>
          21 6 19 6 2.</_></rects>
      <tilted>0</tilted></_>
    <_>
      <rects>
        <_>
          22 28 21 4 -1.</_>
        <_>
          22 30 21 2 2.</_></rects>
      <tilted>0</tilted></_>
    <_>
      <rects>
        <_>
          50 15 10 10 -1.</_>
        <_>
          50 15 5 5 2.</_>
        <_>
          55 20 5 5 2.</_></rects>
      <tilted>0</tilted></_>
    <_>
      <rects>
        <_>
          53 4 4 18 -1.</_>
        <_>
          53 4 2 9 2.</_>
        <_>
          55 13 2 9 2.</_></rects>
      <tilted>0</tilted></_></features></cascade>
</opencv_storage>
